<?xml version="1.0"?>
<opencv_storage>
<cascade>
  <stageType>BOOST</stageType>
  <featureType>HAAR</featureType>
  <height>20</height>
  <width>20</width>
  <stageParams>
    <boostType>GAB</boostType>
    <minHitRate>9.9500000476837158e-01</minHitRate>
    <maxFalseAlarm>5.0000000000000000e-01</maxFalseAlarm>
    <weightTrimRate>9.4999999999999996e-01</weightTrimRate>
    <maxDepth>1</maxDepth>
    <maxWeakCount>100</maxWeakCount></stageParams>
  <featureParams>
    <maxCatCount>0</maxCatCount>
    <featSize>1</featSize>
    <mode>BASIC</mode></featureParams>
  <stageNum>8</stageNum>
  <stages>
    <!-- stage 0 -->
    <_>
      <maxWeakCount>2</maxWeakCount>
      <stageThreshold>8.2451663911342621e-02</stageThreshold>
      <weakClassifiers>
        <_>
          <internalNodes>
            0 -1 23 -9.7327781841158867e-03</internalNodes>
          <leafValues>
            -7.9844963550567627e-01 9.2682927846908569e-01</leafValues></_>
        <_>
          <internalNodes>
            0 -1 20 7.3101236484944820e-03</internalNodes>
          <leafValues>
            -7.0562463998794556e-01 8.8090127706527710e-01</leafValues></_></weakClassifiers></_>
    <!-- stage 1 -->
    <_>
      <maxWeakCount>2</maxWeakCount>
      <stageThreshold>3.0003773048520088e-02</stageThreshold>
      <weakClassifiers>
        <_>
          <internalNodes>
            0 -1 5 -8.1833694130182266e-03</internalNodes>
          <leafValues>
            9.2682927846908569e-01 -7.9844963550567627e-01</leafValues></_>
        <_>
          <internalNodes>
            0 -1 8 5.0599984824657440e-02</internalNodes>
          <leafValues>
            -8.9682549238204956e-01 8.5300320386886597e-01</leafValues></_></weakClassifiers></_>
    <!-- stage 2 -->
    <_>
      <maxWeakCount>2</maxWeakCount>
      <stageThreshold>-9.3167610466480255e-02</stageThreshold>
      <weakClassifiers>
        <_>
          <internalNodes>
            0 -1 11 1.7960306257009506e-02</internalNodes>
          <leafValues>
            -8.5185188055038452e-01 8.1273406744003296e-01</leafValues></_>
        <_>
          <internalNodes>
            0 -1 13 -7.1804523468017578e-03</internalNodes>
          <leafValues>
            7.5868421792984009e-01 -8.1534147262573242e-01</leafValues></_></weakClassifiers></_>
    <!-- stage 3 -->
    <_>
      <maxWeakCount>3</maxWeakCount>
      <stageThreshold>-4.0307575464248657e-01</stageThreshold>
      <weakClassifiers>
        <_>
          <internalNodes>
            0 -1 19 2.4952115491032600e-02</internalNodes>
          <leafValues>
            -5.9722220897674561e-01 9.1341990232467651e-01</leafValues></_>
        <_>
          <internalNodes>
            0 -1 16 1.2498671188950539e-02</internalNodes>
          <leafValues>
            -5.5372434854507446e-01 8.7763285636901855e-01</leafValues></_>
        <_>
          <internalNodes>
            0 -1 17 2.9954868368804455e-03</internalNodes>
          <leafValues>
            -6.8348640203475952e-01 7.7988821268081665e-01</leafValues></_></weakClassifiers></_>
    <!-- stage 4 -->
    <_>
      <maxWeakCount>2</maxWeakCount>
      <stageThreshold>2.8374113142490387e-02</stageThreshold>
      <weakClassifiers>
        <_>
          <internalNodes>
            0 -1 6 -3.0921320430934429e-03</internalNodes>
          <leafValues>
            7.9844963550567627e-01 -6.9230771064758301e-01</leafValues></_>
        <_>
          <internalNodes>
            0 -1 3 -8.6734648793935776e-03</internalNodes>
          <leafValues>
            -7.7007550001144409e-01 7.4103593826293945e-01</leafValues></_></weakClassifiers></_>
    <!-- stage 5 -->
    <_>
      <maxWeakCount>4</maxWeakCount>
      <stageThreshold>-9.1008847951889038e-01</stageThreshold>
      <weakClassifiers>
        <_>
          <internalNodes>
            0 -1 7 1.0234776884317398e-02</internalNodes>
          <leafValues>
            -4.8684209585189819e-01 8.9237666130065918e-01</leafValues></_>
        <_>
          <internalNodes>
            0 -1 15 6.0224835760891438e-03</internalNodes>
          <leafValues>
            -5.1711517572402954e-01 7.7850282192230225e-01</leafValues></_>
        <_>
          <internalNodes>
            0 -1 2 1.7015136778354645e-02</internalNodes>
          <leafValues>
            -5.6578600406646729e-01 6.3048279285430908e-01</leafValues></_>
        <_>
          <internalNodes>
            0 -1 1 2.6979930698871613e-03</internalNodes>
          <leafValues>
            -5.3936666250228882e-01 6.5965473651885986e-01</leafValues></_></weakClassifiers></_>
    <!-- stage 6 -->
    <_>
      <maxWeakCount>4</maxWeakCount>
      <stageThreshold>-9.4573360681533813e-01</stageThreshold>
      <weakClassifiers>
        <_>
          <internalNodes>
            0 -1 21 -3.5319477319717407e-02</internalNodes>
          <leafValues>
            8.5585588216781616e-01 -4.2483660578727722e-01</leafValues></_>
        <_>
          <internalNodes>
            0 -1 14 -1.0355062782764435e-02</internalNodes>
          <leafValues>
            7.1965438127517700e-01 -6.0199475288391113e-01</leafValues></_>
        <_>
          <internalNodes>
            0 -1 10 6.3159675337374210e-03</internalNodes>
          <leafValues>
            -6.3966375589370728e-01 6.6143798828125000e-01</leafValues></_>
        <_>
          <internalNodes>
            0 -1 22 -8.0525558441877365e-03</internalNodes>
          <leafValues>
            8.3886545896530151e-01 -5.8034020662307739e-01</leafValues></_></weakClassifiers></_>
    <!-- stage 7 -->
    <_>
      <maxWeakCount>5</maxWeakCount>
      <stageThreshold>-4.3100595474243164e-01</stageThreshold>
      <weakClassifiers>
        <_>
          <internalNodes>
            0 -1 12 3.9755076169967651e-02</internalNodes>
          <leafValues>
            -7.3626375198364258e-01 6.7605632543563843e-01</leafValues></_>
        <_>
          <internalNodes>
            0 -1 18 -1.8295122310519218e-02</internalNodes>
          <leafValues>
            8.0101215839385986e-01 -5.1426577568054199e-01</leafValues></_>
        <_>
          <internalNodes>
            0 -1 9 -1.1650434695184231e-02</internalNodes>
          <leafValues>
            6.3064473867416382e-01 -7.6461160182952881e-01</leafValues></_>
        <_>
          <internalNodes>
            0 -1 4 -2.0236857235431671e-02</internalNodes>
          <leafValues>
            8.0610638856887817e-01 -4.1582125425338745e-01</leafValues></_>
        <_>
          <internalNodes>
            0 -1 0 5.8986735530197620e-03</internalNodes>
          <leafValues>
            -5.0066155195236206e-01 6.0470002889633179e-01</leafValues></_></weakClassifiers></_></stages>
  <features>
    <_>
      <rects>
        <_>
          0 4 2 12 -1.</_>
        <_>
          1 4 1 12 2.</_></rects>
      <tilted>0</tilted></_>
    <_>
      <rects>
        <_>
          0 10 6 1 -1.</_>
        <_>
          3 10 3 1 2.</_></rects>
      <tilted>0</tilted></_>
    <_>
      <rects>
        <_>
          0 13 10 6 -1.</_>
        <_>
          0 13 5 3 2.</_>
        <_>
          5 16 5 3 2.</_></rects>
      <tilted>0</tilted></_>
    <_>
      <rects>
        <_>
          0 17 1 3 -1.</_>
        <_>
          0 18 1 1 2.</_></rects>
      <tilted>0</tilted></_>
    <_>
      <rects>
        <_>
          1 1 10 4 -1.</_>
        <_>
          1 1 5 2 2.</_>
        <_>
          6 3 5 2 2.</_></rects>
      <tilted>0</tilted></_>
    <_>
      <rects>
        <_>
          2 18 13 2 -1.</_>
        <_>
          2 19 13 1 2.</_></rects>
      <tilted>0</tilted></_>
    <_>
      <rects>
        <_>
          3 2 12 4 -1.</_>
        <_>
          3 4 12 2 2.</_></rects>
      <tilted>0</tilted></_>
    <_>
      <rects>
        <_>
          4 0 10 2 -1.</_>
        <_>
          4 1 10 1 2.</_></rects>
      <tilted>0</tilted></_>
    <_>
      <rects>
        <_>
          4 11 11 8 -1.</_>
        <_>
          4 15 11 4 2.</_></rects>
      <tilted>0</tilted></_>
    <_>
      <rects>
        <_>
          4 18 12 2 -1.</_>
        <_>
          4 19 12 1 2.</_></rects>
      <tilted>0</tilted></_>
    <_>
      <rects>
        <_>
          7 0 9 2 -1.</_>
        <_>
          7 1 9 1 2.</_></rects>
      <tilted>0</tilted></_>
    <_>
      <rects>
        <_>
          7 4 7 6 -1.</_>
        <_>
          7 7 7 3 2.</_></rects>
      <tilted>0</tilted></_>
    <_>
      <rects>
        <_>
          7 13 7 6 -1.</_>
        <_>
          7 16 7 3 2.</_></rects>
      <tilted>0</tilted></_>
    <_>
      <rects>
        <_>
          7 18 9 2 -1.</_>
        <_>
          7 19 9 1 2.</_></rects>
      <tilted>0</tilted></_>
    <_>
      <rects>
        <_>
          8 4 10 4 -1.</_>
        <_>
          8 4 5 2 2.</_>
        <_>
          13 6 5 2 2.</_></rects>
      <tilted>0</tilted></_>
    <_>
      <rects>
        <_>
          9 15 8 1 -1.</_>
        <_>
          13 15 4 1 2.</_></rects>
      <tilted>0</tilted></_>
    <_>
      <rects>
        <_>
          10 3 2 6 -1.</_>
        <_>
          10 6 2 3 2.</_></rects>
      <tilted>0</tilted></_>
    <_>
      <rects>
        <_>
          10 14 1 4 -1.</_>
        <_>
          10 16 1 2 2.</_></rects>
      <tilted>0</tilted></_>
    <_>
      <rects>
        <_>
          11 3 6 6 -1.</_>
        <_>
          11 3 3 3 2.</_>
        <_>
          14 6 3 3 2.</_></rects>
      <tilted>0</tilted></_>
    <_>
      <rects>
        <_>
          11 8 6 8 -1.</_>
        <_>
          11 8 3 4 2.</_>
        <_>
          14 12 3 4 2.</_></rects>
      <tilted>0</tilted></_>
    <_>
      <rects>
        <_>
          11 10 6 4 -1.</_>
        <_>
          11 10 3 2 2.</_>
        <_>
          14 12 3 2 2.</_></rects>
      <tilted>0</tilted></_>
    <_>
      <rects>
        <_>
          16 2 4 17 -1.</_>
        <_>
          18 2 2 17 2.</_></rects>
      <tilted>0</tilted></_>
    <_>
      <rects>
        <_>
          18 3 2 13 -1.</_>
        <_>
          19 3 1 13 2.</_></rects>
      <tilted>0</tilted></_>
    <_>
      <rects>
        <_>
          19 17 1 3 -1.</_>
        <_>
          19 18 1 1 2.</_></rects>
      <tilted>0</tilted></_></features></cascade>
</opencv_storage>
