<?xml version="1.0"?>
<opencv_storage>
<stage7>
  <maxWeakCount>6</maxWeakCount>
  <stageThreshold>-7.3935645818710327e-01</stageThreshold>
  <weakClassifiers>
    <_>
      <internalNodes>
        0 -1 58292 1.0083099827170372e-02</internalNodes>
      <leafValues>
        -4.5318353176116943e-01 7.6811593770980835e-01</leafValues></_>
    <_>
      <internalNodes>
        0 -1 2769 9.4331158325076103e-03</internalNodes>
      <leafValues>
        -3.9343959093093872e-01 8.7268984317779541e-01</leafValues></_>
    <_>
      <internalNodes>
        0 -1 40273 1.0725231841206551e-02</internalNodes>
      <leafValues>
        -5.0898647308349609e-01 6.7357760667800903e-01</leafValues></_>
    <_>
      <internalNodes>
        0 -1 78409 -3.6126874387264252e-02</internalNodes>
      <leafValues>
        -8.5395151376724243e-01 4.4412392377853394e-01</leafValues></_>
    <_>
      <internalNodes>
        0 -1 75281 -4.1050236672163010e-02</internalNodes>
      <leafValues>
        5.4825246334075928e-01 -5.0608891248703003e-01</leafValues></_>
    <_>
      <internalNodes>
        0 -1 52339 1.6034066211432219e-03</internalNodes>
      <leafValues>
        -4.3750122189521790e-01 7.1016412973403931e-01</leafValues></_></weakClassifiers></stage7>
</opencv_storage>
