<?xml version="1.0"?>
<opencv_storage>
<stage9>
  <maxWeakCount>6</maxWeakCount>
  <stageThreshold>-9.4224089384078979e-01</stageThreshold>
  <weakClassifiers>
    <_>
      <internalNodes>
        0 -1 45131 -1.0538781061768532e-02</internalNodes>
      <leafValues>
        6.4084506034851074e-01 -6.2637364864349365e-01</leafValues></_>
    <_>
      <internalNodes>
        0 -1 34660 9.7091933712363243e-03</internalNodes>
      <leafValues>
        -6.4219230413436890e-01 5.3860920667648315e-01</leafValues></_>
    <_>
      <internalNodes>
        0 -1 67689 1.6097541898488998e-02</internalNodes>
      <leafValues>
        -5.8479249477386475e-01 5.4644727706909180e-01</leafValues></_>
    <_>
      <internalNodes>
        0 -1 55896 -1.2416427955031395e-02</internalNodes>
      <leafValues>
        7.4461609125137329e-01 -4.1828373074531555e-01</leafValues></_>
    <_>
      <internalNodes>
        0 -1 20960 3.9714470505714417e-02</internalNodes>
      <leafValues>
        -3.7579610943794250e-01 7.1005725860595703e-01</leafValues></_>
    <_>
      <internalNodes>
        0 -1 17185 -4.3966816738247871e-03</internalNodes>
      <leafValues>
        5.2671515941619873e-01 -5.6145751476287842e-01</leafValues></_></weakClassifiers></stage9>
</opencv_storage>
