<?xml version="1.0"?>
<opencv_storage>
<cascade>
  <stageType>BOOST</stageType>
  <featureType>HAAR</featureType>
  <height>20</height>
  <width>20</width>
  <stageParams>
    <boostType>GAB</boostType>
    <minHitRate>9.9500000476837158e-01</minHitRate>
    <maxFalseAlarm>5.0000000000000000e-01</maxFalseAlarm>
    <weightTrimRate>9.4999999999999996e-01</weightTrimRate>
    <maxDepth>1</maxDepth>
    <maxWeakCount>100</maxWeakCount></stageParams>
  <featureParams>
    <maxCatCount>0</maxCatCount>
    <featSize>1</featSize>
    <mode>BASIC</mode></featureParams>
  <stageNum>11</stageNum>
  <stages>
    <!-- stage 0 -->
    <_>
      <maxWeakCount>2</maxWeakCount>
      <stageThreshold>-5.6173358112573624e-02</stageThreshold>
      <weakClassifiers>
        <_>
          <internalNodes>
            0 -1 20 1.4814730733633041e-02</internalNodes>
          <leafValues>
            -9.5515692234039307e-01 8.7855786085128784e-01</leafValues></_>
        <_>
          <internalNodes>
            0 -1 1 5.2916653454303741e-02</internalNodes>
          <leafValues>
            -8.2675290107727051e-01 8.9898359775543213e-01</leafValues></_></weakClassifiers></_>
    <!-- stage 1 -->
    <_>
      <maxWeakCount>2</maxWeakCount>
      <stageThreshold>-2.1747209131717682e-02</stageThreshold>
      <weakClassifiers>
        <_>
          <internalNodes>
            0 -1 4 -2.0696420222520828e-02</internalNodes>
          <leafValues>
            8.4120982885360718e-01 -8.8235294818878174e-01</leafValues></_>
        <_>
          <internalNodes>
            0 -1 23 -6.5312504768371582e-02</internalNodes>
          <leafValues>
            8.8867622613906860e-01 -8.6295706033706665e-01</leafValues></_></weakClassifiers></_>
    <!-- stage 2 -->
    <_>
      <maxWeakCount>2</maxWeakCount>
      <stageThreshold>-4.6262820251286030e-03</stageThreshold>
      <weakClassifiers>
        <_>
          <internalNodes>
            0 -1 3 -2.8475198894739151e-02</internalNodes>
          <leafValues>
            9.0515464544296265e-01 -7.1320754289627075e-01</leafValues></_>
        <_>
          <internalNodes>
            0 -1 8 -2.9816133901476860e-02</internalNodes>
          <leafValues>
            7.3594677448272705e-01 -9.0978091955184937e-01</leafValues></_></weakClassifiers></_>
    <!-- stage 3 -->
    <_>
      <maxWeakCount>2</maxWeakCount>
      <stageThreshold>1.5592630952596664e-02</stageThreshold>
      <weakClassifiers>
        <_>
          <internalNodes>
            0 -1 6 2.8338659554719925e-02</internalNodes>
          <leafValues>
            -6.1216729879379272e-01 8.4394252300262451e-01</leafValues></_>
        <_>
          <internalNodes>
            0 -1 12 -7.4767176993191242e-03</internalNodes>
          <leafValues>
            7.0968234539031982e-01 -8.2834988832473755e-01</leafValues></_></weakClassifiers></_>
    <!-- stage 4 -->
    <_>
      <maxWeakCount>2</maxWeakCount>
      <stageThreshold>-8.6321048438549042e-02</stageThreshold>
      <weakClassifiers>
        <_>
          <internalNodes>
            0 -1 0 -4.3422871828079224e-01</internalNodes>
          <leafValues>
            -8.8118809461593628e-01 7.8102189302444458e-01</leafValues></_>
        <_>
          <internalNodes>
            0 -1 16 1.0358871892094612e-02</internalNodes>
          <leafValues>
            -7.5137215852737427e-01 7.9486703872680664e-01</leafValues></_></weakClassifiers></_>
    <!-- stage 5 -->
    <_>
      <maxWeakCount>5</maxWeakCount>
      <stageThreshold>-1.2922172546386719e+00</stageThreshold>
      <weakClassifiers>
        <_>
          <internalNodes>
            0 -1 14 7.0231696590781212e-03</internalNodes>
          <leafValues>
            -8.0952382087707520e-01 6.6323024034500122e-01</leafValues></_>
        <_>
          <internalNodes>
            0 -1 9 -5.4681189358234406e-02</internalNodes>
          <leafValues>
            5.9470582008361816e-01 -7.1901601552963257e-01</leafValues></_>
        <_>
          <internalNodes>
            0 -1 24 -4.5573018491268158e-02</internalNodes>
          <leafValues>
            5.8321762084960938e-01 -7.9055553674697876e-01</leafValues></_>
        <_>
          <internalNodes>
            0 -1 5 -1.2234972789883614e-02</internalNodes>
          <leafValues>
            5.8159202337265015e-01 -6.9900327920913696e-01</leafValues></_>
        <_>
          <internalNodes>
            0 -1 10 1.5874713426455855e-04</internalNodes>
          <leafValues>
            3.6839240789413452e-01 -9.6161359548568726e-01</leafValues></_></weakClassifiers></_>
    <!-- stage 6 -->
    <_>
      <maxWeakCount>4</maxWeakCount>
      <stageThreshold>-1.7105948925018311e-01</stageThreshold>
      <weakClassifiers>
        <_>
          <internalNodes>
            0 -1 13 9.8956841975450516e-03</internalNodes>
          <leafValues>
            -5.1971328258514404e-01 8.3864116668701172e-01</leafValues></_>
        <_>
          <internalNodes>
            0 -1 2 3.6699056625366211e-02</internalNodes>
          <leafValues>
            -6.0687732696533203e-01 7.5322246551513672e-01</leafValues></_>
        <_>
          <internalNodes>
            0 -1 21 -3.8641630671918392e-03</internalNodes>
          <leafValues>
            5.8068257570266724e-01 -7.9561626911163330e-01</leafValues></_>
        <_>
          <internalNodes>
            0 -1 22 -1.4973301440477371e-03</internalNodes>
          <leafValues>
            3.9279294013977051e-01 -8.6870360374450684e-01</leafValues></_></weakClassifiers></_>
    <!-- stage 7 -->
    <_>
      <maxWeakCount>4</maxWeakCount>
      <stageThreshold>-2.9902577400207520e-01</stageThreshold>
      <weakClassifiers>
        <_>
          <internalNodes>
            0 -1 25 2.6333329151384532e-04</internalNodes>
          <leafValues>
            6.1563515663146973e-01 -9.4117647409439087e-01</leafValues></_>
        <_>
          <internalNodes>
            0 -1 25 -9.7844189440365881e-05</internalNodes>
          <leafValues>
            -8.1644833087921143e-01 5.3948092460632324e-01</leafValues></_>
        <_>
          <internalNodes>
            0 -1 11 -3.3013716340065002e-02</internalNodes>
          <leafValues>
            6.3251018524169922e-01 -6.6041767597198486e-01</leafValues></_>
        <_>
          <internalNodes>
            0 -1 15 3.8588590919971466e-02</internalNodes>
          <leafValues>
            -5.2984040975570679e-01 8.0315595865249634e-01</leafValues></_></weakClassifiers></_>
    <!-- stage 8 -->
    <_>
      <maxWeakCount>1</maxWeakCount>
      <stageThreshold>6.1165046691894531e-01</stageThreshold>
      <weakClassifiers>
        <_>
          <internalNodes>
            0 -1 26 1.3027098611928523e-04</internalNodes>
          <leafValues>
            6.1165046691894531e-01 -9.6969699859619141e-01</leafValues></_></weakClassifiers></_>
    <!-- stage 9 -->
    <_>
      <maxWeakCount>4</maxWeakCount>
      <stageThreshold>-3.4172099828720093e-01</stageThreshold>
      <weakClassifiers>
        <_>
          <internalNodes>
            0 -1 26 -1.3789374497719109e-04</internalNodes>
          <leafValues>
            -6.2737643718719482e-01 8.5215604305267334e-01</leafValues></_>
        <_>
          <internalNodes>
            0 -1 4 -3.1093247234821320e-02</internalNodes>
          <leafValues>
            6.3296020030975342e-01 -7.8960877656936646e-01</leafValues></_>
        <_>
          <internalNodes>
            0 -1 18 -4.1138410568237305e-01</internalNodes>
          <leafValues>
            -9.2934346199035645e-01 3.9916378259658813e-01</leafValues></_>
        <_>
          <internalNodes>
            0 -1 19 6.3670367002487183e-02</internalNodes>
          <leafValues>
            -5.8380794525146484e-01 6.7610049247741699e-01</leafValues></_></weakClassifiers></_>
    <!-- stage 10 -->
    <_>
      <maxWeakCount>4</maxWeakCount>
      <stageThreshold>-7.3134773969650269e-01</stageThreshold>
      <weakClassifiers>
        <_>
          <internalNodes>
            0 -1 27 -1.3662848505191505e-04</internalNodes>
          <leafValues>
            -7.6237624883651733e-01 7.3722624778747559e-01</leafValues></_>
        <_>
          <internalNodes>
            0 -1 7 1.1930891923839226e-04</internalNodes>
          <leafValues>
            5.5716073513031006e-01 -8.4625351428985596e-01</leafValues></_>
        <_>
          <internalNodes>
            0 -1 7 -1.8983916379511356e-04</internalNodes>
          <leafValues>
            -9.4380205869674683e-01 4.5096758008003235e-01</leafValues></_>
        <_>
          <internalNodes>
            0 -1 17 2.2624773904681206e-02</internalNodes>
          <leafValues>
            -7.5316995382308960e-01 4.1766980290412903e-01</leafValues></_></weakClassifiers></_></stages>
  <features>
    <_>
      <rects>
        <_>
          0 4 12 12 -1.</_>
        <_>
          4 4 4 12 2.</_></rects>
      <tilted>0</tilted></_>
    <_>
      <rects>
        <_>
          0 5 6 11 -1.</_>
        <_>
          3 5 3 11 2.</_></rects>
      <tilted>0</tilted></_>
    <_>
      <rects>
        <_>
          0 6 4 9 -1.</_>
        <_>
          2 6 2 9 2.</_></rects>
      <tilted>0</tilted></_>
    <_>
      <rects>
        <_>
          3 16 13 4 -1.</_>
        <_>
          3 18 13 2 2.</_></rects>
      <tilted>0</tilted></_>
    <_>
      <rects>
        <_>
          4 0 8 10 -1.</_>
        <_>
          4 0 4 5 2.</_>
        <_>
          8 5 4 5 2.</_></rects>
      <tilted>0</tilted></_>
    <_>
      <rects>
        <_>
          4 2 8 4 -1.</_>
        <_>
          4 2 4 2 2.</_>
        <_>
          8 4 4 2 2.</_></rects>
      <tilted>0</tilted></_>
    <_>
      <rects>
        <_>
          5 0 13 4 -1.</_>
        <_>
          5 2 13 2 2.</_></rects>
      <tilted>0</tilted></_>
    <_>
      <rects>
        <_>
          5 7 1 4 -1.</_>
        <_>
          5 9 1 2 2.</_></rects>
      <tilted>0</tilted></_>
    <_>
      <rects>
        <_>
          5 7 6 7 -1.</_>
        <_>
          8 7 3 7 2.</_></rects>
      <tilted>0</tilted></_>
    <_>
      <rects>
        <_>
          5 7 6 8 -1.</_>
        <_>
          8 7 3 8 2.</_></rects>
      <tilted>0</tilted></_>
    <_>
      <rects>
        <_>
          5 10 1 4 -1.</_>
        <_>
          5 12 1 2 2.</_></rects>
      <tilted>0</tilted></_>
    <_>
      <rects>
        <_>
          5 16 8 4 -1.</_>
        <_>
          5 18 8 2 2.</_></rects>
      <tilted>0</tilted></_>
    <_>
      <rects>
        <_>
          5 18 14 2 -1.</_>
        <_>
          5 19 14 1 2.</_></rects>
      <tilted>0</tilted></_>
    <_>
      <rects>
        <_>
          6 0 9 2 -1.</_>
        <_>
          6 1 9 1 2.</_></rects>
      <tilted>0</tilted></_>
    <_>
      <rects>
        <_>
          6 7 8 10 -1.</_>
        <_>
          6 12 8 5 2.</_></rects>
      <tilted>0</tilted></_>
    <_>
      <rects>
        <_>
          7 0 6 4 -1.</_>
        <_>
          7 2 6 2 2.</_></rects>
      <tilted>0</tilted></_>
    <_>
      <rects>
        <_>
          8 2 8 4 -1.</_>
        <_>
          8 2 4 2 2.</_>
        <_>
          12 4 4 2 2.</_></rects>
      <tilted>0</tilted></_>
    <_>
      <rects>
        <_>
          8 2 8 6 -1.</_>
        <_>
          8 2 4 3 2.</_>
        <_>
          12 5 4 3 2.</_></rects>
      <tilted>0</tilted></_>
    <_>
      <rects>
        <_>
          8 4 12 12 -1.</_>
        <_>
          12 4 4 12 2.</_></rects>
      <tilted>0</tilted></_>
    <_>
      <rects>
        <_>
          9 6 6 9 -1.</_>
        <_>
          12 6 3 9 2.</_></rects>
      <tilted>0</tilted></_>
    <_>
      <rects>
        <_>
          9 8 6 4 -1.</_>
        <_>
          12 8 3 4 2.</_></rects>
      <tilted>0</tilted></_>
    <_>
      <rects>
        <_>
          9 13 8 4 -1.</_>
        <_>
          9 13 4 2 2.</_>
        <_>
          13 15 4 2 2.</_></rects>
      <tilted>0</tilted></_>
    <_>
      <rects>
        <_>
          13 12 1 8 -1.</_>
        <_>
          13 16 1 4 2.</_></rects>
      <tilted>0</tilted></_>
    <_>
      <rects>
        <_>
          14 2 6 14 -1.</_>
        <_>
          17 2 3 14 2.</_></rects>
      <tilted>0</tilted></_>
    <_>
      <rects>
        <_>
          14 6 6 7 -1.</_>
        <_>
          17 6 3 7 2.</_></rects>
      <tilted>0</tilted></_>
    <_>
      <rects>
        <_>
          14 8 1 6 -1.</_>
        <_>
          14 11 1 3 2.</_></rects>
      <tilted>0</tilted></_>
    <_>
      <rects>
        <_>
          14 9 1 6 -1.</_>
        <_>
          14 12 1 3 2.</_></rects>
      <tilted>0</tilted></_>
    <_>
      <rects>
        <_>
          14 10 1 4 -1.</_>
        <_>
          14 12 1 2 2.</_></rects>
      <tilted>0</tilted></_></features></cascade>
</opencv_storage>
